-3.942269540857523680e-04
1.020051713567227125e-04
1.127517502754926682e-02
-9.333029156550765038e-04
6.210651248693466187e-03
1.675197738222777843e-03
7.836422882974147797e-03
6.191367283463478088e-03
-5.013173911720514297e-03
-4.012639168649911880e-03
6.059145089238882065e-03
-3.329617436975240707e-03
-1.047499710693955421e-03
1.100851455703377724e-03
-2.482881769537925720e-03
-3.072789637371897697e-03
-3.818530531134456396e-04
5.204910412430763245e-03
-9.379858965985476971e-04
-1.325052813626825809e-03
3.167983086314052343e-04
1.457134145312011242e-03
3.423937829211354256e-03
-3.248988185077905655e-03
-3.251151647418737411e-03
-4.471127467695623636e-04
1.360387355089187622e-02
1.600009156391024590e-03
2.038026694208383560e-03
1.275699352845549583e-03
-4.059661179780960083e-03
5.527609959244728088e-03
6.939694751054048538e-03
-6.432726047933101654e-03
1.451544649899005890e-02
-9.067270439118146896e-04
-8.253971464000642300e-04
7.245738524943590164e-03
-2.498542889952659607e-03
1.311695086769759655e-04
-5.415036575868725777e-04
-3.316628572065383196e-04
4.942474886775016785e-03
-3.046444850042462349e-03
-2.463384531438350677e-03
-9.149795514531433582e-04
-1.630404731258749962e-03
-1.824675826355814934e-03
4.096358083188533783e-03
-4.301574663259088993e-04
4.607405513525009155e-03
7.929611019790172577e-03
-5.698608234524726868e-03
-1.983964582905173302e-03
-7.863610982894897461e-03
5.365610122680664062e-03
1.295761205255985260e-03
1.955297542735934258e-03
3.532666014507412910e-03
-2.298766514286398888e-03
-3.384684910997748375e-03
-3.894659224897623062e-03
8.976597338914871216e-03
-5.061969626694917679e-03
-9.145467542111873627e-03
9.739750064909458160e-03
5.368699319660663605e-03
-1.166742388159036636e-02
-2.093365183100104332e-03
8.002800168469548225e-04
-7.310483488254249096e-05
-5.487888120114803314e-03
-2.660351339727640152e-03
1.831324654631316662e-03
-1.912651699967682362e-03
-4.255420062690973282e-03
-5.006815772503614426e-03
-8.335257880389690399e-04
5.119103938341140747e-03
5.681717993866186589e-07
-4.248301498591899872e-03
-6.207040976732969284e-03
2.926048357039690018e-03
6.420996040105819702e-03
1.261827070266008377e-03
-3.046461381018161774e-03
2.365345833823084831e-03
-5.928135011345148087e-03
-6.062279921025037766e-03
-1.948529039509594440e-03
4.266816191375255585e-03
-8.302238769829273224e-03
4.213838838040828705e-03
-1.958334818482398987e-03
6.121600978076457977e-03
6.508668418973684311e-03
-2.235385356470942497e-03
6.525761564262211323e-04
5.196748767048120499e-03
1.620941620785742998e-04
-4.762732423841953278e-03
3.133722115308046341e-03
-3.478944418020546436e-04
-3.283928846940398216e-03
-2.834952902048826218e-03
-1.020363904535770416e-02
1.532795286038890481e-04
-1.175756799057126045e-03
2.858797088265419006e-03
-1.788967987522482872e-03
9.470097138546407223e-04
8.816785179078578949e-03
-5.304867867380380630e-03
-3.007340244948863983e-03
2.189786871895194054e-03
-1.833056681789457798e-03
3.901526331901550293e-03
2.120801247656345367e-03
-6.640453822910785675e-03
-7.462204433977603912e-03
1.500875456258654594e-03
5.392234306782484055e-03
-5.175830330699682236e-03
-1.394661259837448597e-03
-1.770053931977599859e-04
8.498409762978553772e-03
2.653472125530242920e-03
2.593970624729990959e-03
-2.945190994068980217e-03
-2.484589815139770508e-03
9.079984389245510101e-03
-2.019847743213176727e-03
3.086073789745569229e-03
3.143014851957559586e-03
1.863952726125717163e-03
-2.335276454687118530e-03
-9.089506231248378754e-03
3.080595517531037331e-03
3.901740303263068199e-03
-6.427080952562391758e-04
1.520803431048989296e-03
1.813681912608444691e-03
9.279764490202069283e-04
-9.421889670193195343e-03
-2.997110597789287567e-03
-1.973000355064868927e-03
-8.371391333639621735e-03
5.835877265781164169e-03
2.694292459636926651e-03
1.348338928073644638e-02
4.102553240954875946e-03
-4.947971086949110031e-03
-6.035652477294206619e-03
-7.587600033730268478e-03
-7.659384980797767639e-03
-2.733282453846186399e-04
-4.921596701024100184e-05
5.789387039840221405e-03
8.821488358080387115e-03
3.474752185866236687e-03
3.085964825004339218e-03
9.816183708608150482e-03
8.031343109905719757e-03
8.811589330434799194e-03
-1.509278081357479095e-03
-7.060029078274965286e-03
3.645107615739107132e-03
2.299024257808923721e-03
-6.385825108736753464e-03
1.820847508497536182e-03
-7.661367766559123993e-03
4.250942263752222061e-03
3.820063080638647079e-03
-1.776505727320909500e-03
2.218451583757996559e-03
-2.393004018813371658e-03
2.235885243862867355e-03
-3.810458816587924957e-03
-4.780868068337440491e-03
-2.834699582308530807e-03
-3.117500804364681244e-03
8.844143711030483246e-03
-3.850678214803338051e-03
-3.041707212105393410e-03
4.742491059005260468e-03
-6.481229327619075775e-03
-1.032144390046596527e-02
4.384088329970836639e-03
-7.373665575869381428e-04
4.754630383104085922e-03
-2.802324714139103889e-03
-4.231163300573825836e-03
-2.434662543237209320e-03
5.936542875133454800e-04
-8.700501639395952225e-04
1.081872847862541676e-03
9.478196501731872559e-03
4.948446992784738541e-03
7.126554381102323532e-03
5.426923278719186783e-03
-3.040578216314315796e-03
-1.643814262934029102e-03
-7.039602845907211304e-03
3.272199770435690880e-03
-4.260995890945196152e-03
6.569654215127229691e-03
4.826808348298072815e-03
1.477548619732260704e-03
-1.085459627211093903e-02
3.243856132030487061e-03
-4.430951958056539297e-04
-2.813923871144652367e-03
-7.092574611306190491e-03
-5.133406724780797958e-03
3.914458677172660828e-03
-3.252531867474317551e-03
-5.943187861703336239e-04
-1.904149539768695831e-04
-2.361528342589735985e-03
-2.396644267719238997e-04
5.177787039428949356e-03
-2.186697442084550858e-03
2.934321062639355659e-03
-7.065770914778113365e-04
-5.297957453876733780e-03
5.272290669381618500e-03
-4.565581621136516333e-04
-1.417204621247947216e-03
-4.013651050627231598e-03
-1.542525249533355236e-03
6.079296581447124481e-03
3.658495144918560982e-03
-5.573017522692680359e-03
-2.281700493767857552e-03
1.634863088838756084e-03
-5.561827216297388077e-03
2.010793425142765045e-03
5.091177765280008316e-03
6.480181124061346054e-03
-1.214061048813164234e-03
-9.115859866142272949e-04
2.177584538003429770e-04
7.754099555313587189e-03
-1.628984231501817703e-03
9.353776462376117706e-03
-8.724257349967956543e-03
1.431381562724709511e-03
-4.290119279175996780e-03
3.197224345058202744e-03
-3.170291194692254066e-03
1.613414497114717960e-03
-8.638246799819171429e-04
-3.331861691549420357e-03
8.510245243087410927e-04
9.530666284263134003e-03
-4.547388758510351181e-03
-6.574461585842072964e-04
-4.941713064908981323e-03
-7.505516987293958664e-04
4.921180196106433868e-03
5.493224598467350006e-04
-3.515953721944242716e-04
2.695011440664529800e-03
-1.959329936653375626e-03
-5.429479293525218964e-03
-7.750024087727069855e-03
-1.598836854100227356e-03
-1.257883571088314056e-02
2.869332209229469299e-03
3.549385815858840942e-03
-6.737516727298498154e-03
-1.329414662905037403e-03
5.520164966583251953e-03
-5.620480515062808990e-03
-5.462156143039464951e-03
2.146643120795488358e-03
-3.450906369835138321e-03
9.669543942436575890e-04
-5.059999530203640461e-04
5.720096174627542496e-03
-1.140765612944960594e-03
7.717571686953306198e-03
-2.868979237973690033e-03
3.531096270307898521e-03
4.734697751700878143e-03
-1.192962634377181530e-03
-6.374989170581102371e-04
7.326190825551748276e-03
8.552215062081813812e-03
-2.496603177860379219e-03
4.156425129622220993e-03
-2.257501240819692612e-03
2.064765576506033540e-04
-3.120559267699718475e-04
6.925117690116167068e-03
-2.882364497054368258e-04
-2.340484876185655594e-03
1.783402636647224426e-03
4.322777502238750458e-03
7.590629393234848976e-04
2.438618801534175873e-03
-6.463184487074613571e-03
-3.415170125663280487e-03
4.956619814038276672e-04
7.379035465419292450e-03
3.125157207250595093e-03
-1.275793882086873055e-03
-4.598551022354513407e-04
-1.364036346785724163e-03
-4.714819602668285370e-03
-3.122387686744332314e-03
-3.133840509690344334e-04
3.848112653940916061e-03
1.236896868795156479e-02
-5.335448309779167175e-03
6.451546680182218552e-03
-3.551797242835164070e-03
2.319404156878590584e-03
-6.026146933436393738e-03
2.463744021952152252e-04
3.954357525799423456e-04
-7.770425640046596527e-03
-3.466126800049096346e-04
-9.229346178472042084e-04
-6.178864859975874424e-04
-2.453281544148921967e-03
7.269483059644699097e-03
1.119904406368732452e-02
3.137552703265100718e-04
-8.184633217751979828e-03
-1.731154276058077812e-03
-8.568495512008666992e-03
-6.209890852915123105e-05
-9.054456837475299835e-03
1.877938280813395977e-03
-8.588941767811775208e-03
1.673712395131587982e-03
-1.678599393926560879e-03
-1.719824649626389146e-05
-3.159540006890892982e-03
-2.004584530368447304e-03
1.112628597184084356e-04
5.319497431628406048e-04
2.078396826982498169e-02
4.366745706647634506e-04
-1.476338482461869717e-03
6.151862908154726028e-03
-2.459341427311301231e-03
-6.690985988825559616e-03
-5.192892160266637802e-03
-1.000938282231800258e-04
1.339000370353460312e-02
-9.053382091224193573e-04
-1.680808025412261486e-03
3.440128421061672270e-05
-7.645227946341037750e-03
2.490177284926176071e-04
-8.299935609102249146e-03
2.537404885515570641e-03
-5.384098272770643234e-03
-1.295635011047124863e-03
-6.936882156878709793e-03
8.982628583908081055e-03
4.147735424339771271e-03
-2.873152261599898338e-03
3.490430826786905527e-04
-4.442027769982814789e-03
-7.376504130661487579e-03
1.276539522223174572e-03
5.977743305265903473e-03
-3.804440610110759735e-03
-3.213583957403898239e-03
-7.104080636054277420e-03
-3.521548816934227943e-03
-1.126904680859297514e-04
-1.085063535720109940e-02
-5.830010399222373962e-03
7.354309782385826111e-03
5.918839015066623688e-03
8.592466474510729313e-04
2.578630112111568451e-03
-5.034027155488729477e-03
2.030051313340663910e-03
-3.809403395280241966e-03
6.066503003239631653e-03
1.198357320390641689e-03
-3.789413953199982643e-03
8.468182757496833801e-03
4.272159188985824585e-03
-1.020002760924398899e-03
3.448773641139268875e-03
1.270935311913490295e-02
-1.146894646808505058e-03
-2.681885845959186554e-03
1.592028886079788208e-03
-5.681162234395742416e-03
9.944868506863713264e-04
-1.476189936511218548e-03
3.957650624215602875e-03
3.599370364099740982e-03
-6.835637614130973816e-04
-2.103945473209023476e-03
-2.605928108096122742e-03
4.274389939382672310e-04
-7.381539791822433472e-03
-8.644348010420799255e-03
1.051692478358745575e-02
-2.489025064278393984e-04
-2.785776043310761452e-03
-1.911014202050864697e-03
-3.925413824617862701e-03
-1.042224466800689697e-03
4.640020895749330521e-03
-3.470528172329068184e-03
5.214319564402103424e-03
-2.291848650202155113e-03
9.574627038091421127e-04
9.701223112642765045e-03
-1.951712882146239281e-03
-4.703422542661428452e-03
-8.818574249744415283e-03
9.511394426226615906e-03
-7.199154701083898544e-03
7.594904396682977676e-03
9.787235176190733910e-04
8.830190054140985012e-04
-2.263743896037340164e-03
1.716801671136636287e-05
-5.950740538537502289e-03
2.634973498061299324e-04
2.750573679804801941e-03
1.004947349429130554e-03
-4.741409793496131897e-03
-1.847939682193100452e-03
6.813173240516334772e-05
-3.026155522093176842e-03
4.738732241094112396e-03
-3.174710087478160858e-03
-4.501040093600749969e-03
-6.584004964679479599e-03
-3.937215078622102737e-03
3.905124496668577194e-03
-7.323147729039192200e-03
-2.448151353746652603e-03
-9.045595303177833557e-03
1.026952173560857773e-02
2.850292366929352283e-04
1.256866939365863800e-02
6.345725618302822113e-03
4.262753936927765608e-04
1.265565049834549427e-03
6.279250606894493103e-03
6.290953606367111206e-04
1.102427486330270767e-03
4.695540294051170349e-03
1.206821762025356293e-03
-6.593078142032027245e-04
5.484165623784065247e-03
5.238580517470836639e-03
9.449862991459667683e-04
2.555168466642498970e-03
1.131097599864006042e-02
7.267842534929513931e-03
9.714934043586254120e-03
7.358793518505990505e-04
-2.910086186602711678e-03
2.814873121678829193e-03
-4.013221710920333862e-03
4.406540654599666595e-03
7.467967225238680840e-04
8.984218584373593330e-04
2.449720632284879684e-03
-3.218833124265074730e-03
1.046760659664869308e-02
6.238860078155994415e-03
6.868444383144378662e-03
8.469365537166595459e-03
8.854979649186134338e-03
-3.914850763976573944e-03
-2.041467378148809075e-04
-6.323534063994884491e-03
1.226586755365133286e-03
1.802930346457287669e-04
1.926444470882415771e-03
1.024606265127658844e-02
4.731197375804185867e-03
-5.832808092236518860e-04
-1.899532624520361423e-03
4.563555703498423100e-04
-6.875281105749309063e-04
4.984656814485788345e-03
-2.103334409184753895e-04
6.681711878627538681e-03
-4.605957306921482086e-03
1.616212539374828339e-03
1.252600457519292831e-03
3.080213908106088638e-03
-1.050128266797401011e-04
4.859630018472671509e-03
6.127309985458850861e-03
