-1.403264235705137253e-03
4.049563314765691757e-03
1.416050363332033157e-03
-3.605155739933252335e-03
-2.595365745946764946e-03
-4.330857656896114349e-03
9.968179278075695038e-03
-8.539726957678794861e-03
-3.513334668241441250e-04
-1.835755654610693455e-03
-2.714583650231361389e-03
5.451806820929050446e-03
-5.482565145939588547e-03
3.965107258409261703e-03
-1.558823743835091591e-03
5.157663836143910885e-04
8.750242181122303009e-03
-1.841605291701853275e-03
5.556651158258318901e-04
-4.735701251775026321e-03
-6.397700635716319084e-04
2.509354613721370697e-03
3.597927512601017952e-03
1.008371124044060707e-03
-6.564816460013389587e-03
-1.582192053319886327e-04
4.945246968418359756e-03
-5.905847530812025070e-03
-4.045068752020597458e-03
-4.696746356785297394e-03
6.297989282757043839e-03
-6.020709406584501266e-04
-5.298551637679338455e-03
1.197686651721596718e-03
3.018038347363471985e-03
1.942658214829862118e-03
8.510356768965721130e-03
1.487122033722698689e-03
2.505714306607842445e-03
2.806327305734157562e-03
-5.721419584006071091e-03
-6.436158902943134308e-03
-4.802852403372526169e-03
-9.989861864596605301e-04
-1.144920126534998417e-03
6.376178469508886337e-03
3.904126584529876709e-03
5.963422358036041260e-03
-1.630187034606933594e-03
8.960573002696037292e-03
2.116345800459384918e-03
-2.935936441645026207e-03
-4.445617087185382843e-04
2.086018910631537437e-03
9.774230420589447021e-04
5.415505729615688324e-04
-2.601667307317256927e-03
-7.853963412344455719e-03
-8.374733733944594860e-04
-7.011868990957736969e-03
-5.347770638763904572e-03
1.440929947420954704e-03
5.948335863649845123e-03
-2.343196421861648560e-03
5.782866501249372959e-04
-4.670640919357538223e-03
-1.673190155997872353e-03
-3.458067541942000389e-03
1.133747049607336521e-03
5.514673888683319092e-03
1.916091889142990112e-03
2.488218247890472412e-03
-2.354629104956984520e-03
4.169250838458538055e-03
1.142670516856014729e-03
5.887216888368129730e-03
-2.797818975523114204e-03
3.735396021511405706e-04
8.377735503017902374e-03
2.413186011835932732e-03
7.773734978400170803e-04
-6.875878665596246719e-03
2.368727466091513634e-03
-1.499471138231456280e-03
3.647671081125736237e-03
-2.949212794192135334e-04
-3.182820510119199753e-03
-6.578987464308738708e-03
4.100443795323371887e-03
-3.308827755972743034e-03
-3.413041355088353157e-03
-2.513363491743803024e-03
-8.263089694082736969e-03
-4.356690216809511185e-03
4.514486528933048248e-03
-5.762070883065462112e-03
6.162858568131923676e-03
-6.273777689784765244e-04
-5.630941130220890045e-03
-2.780902665108442307e-03
7.928347913548350334e-04
-3.772348645725287497e-05
-1.163428532890975475e-03
-1.861930824816226959e-03
-9.047845378518104553e-03
4.470559069886803627e-04
1.125152572058141232e-03
-4.022815264761447906e-03
-2.486461307853460312e-03
-3.182122600264847279e-04
-3.934224514523521066e-05
2.462378470227122307e-03
-6.912050768733024597e-03
-1.059258729219436646e-02
-5.469777970574796200e-04
-1.090831006877124310e-03
-2.043966233031824231e-04
-4.497611429542303085e-03
4.056576173752546310e-03
4.939976613968610764e-03
7.721576839685440063e-04
-3.674309409689158201e-04
-4.106697742827236652e-04
-1.158648286946117878e-03
-3.813089570030570030e-04
4.815320950001478195e-03
-3.889748593792319298e-03
-8.958495222032070160e-03
2.437311690300703049e-03
2.367431763559579849e-03
-1.356435194611549377e-02
7.099593989551067352e-03
1.545101753436028957e-03
-6.639188621193170547e-03
-4.581004381179809570e-03
-7.142400590964825824e-06
-5.341926123946905136e-03
1.797375851310789585e-03
-1.234592753462493420e-03
1.334924809634685516e-02
3.250196168664842844e-04
4.611421376466751099e-03
2.106761676259338856e-04
1.616582012502476573e-04
-4.636923782527446747e-03
1.707205083221197128e-03
-1.195923238992691040e-02
6.456824485212564468e-04
5.897340830415487289e-03
-7.266161497682332993e-03
5.759752821177244186e-03
-4.864394199103116989e-03
-1.224844367243349552e-03
1.789899542927742004e-03
3.607044462114572525e-03
-2.356554381549358368e-03
-3.799527650699019432e-03
3.958460409194231033e-03
-3.080153604969382286e-03
3.613645909354090691e-03
-3.905093763023614883e-03
-2.698700642213225365e-03
-4.057163372635841370e-03
-3.133355407044291496e-03
2.127416199073195457e-03
1.801095320843160152e-03
-2.830868354067206383e-03
8.258848451077938080e-03
-1.672161510214209557e-03
-1.157820806838572025e-03
7.414690218865871429e-03
-4.870068747550249100e-03
-3.938155248761177063e-03
1.538736047223210335e-03
3.567819017916917801e-03
-2.161477605113759637e-04
-7.633973844349384308e-03
-3.498451318591833115e-03
4.529204219579696655e-03
5.004397127777338028e-03
-2.030988107435405254e-04
-2.672809641808271408e-03
-1.250582048669457436e-03
-4.727113409899175167e-04
-2.091608010232448578e-03
-2.510756487026810646e-03
-9.054674766957759857e-03
-3.394457511603832245e-03
-2.406050218269228935e-03
-2.141251461580395699e-04
-3.832390299066901207e-03
-1.829409855417907238e-03
-6.290312740020453930e-04
7.103586103767156601e-04
1.970049459487199783e-03
3.637884045019745827e-03
-6.240095477551221848e-03
-3.797937533818185329e-04
-2.934270305559039116e-03
-2.287038834765553474e-03
-5.510415416210889816e-03
-4.235001280903816223e-03
-2.060413360595703125e-03
-4.452554974704980850e-03
1.687758951447904110e-03
6.480847019702196121e-03
6.115755066275596619e-03
8.198944851756095886e-04
-3.556910203769803047e-03
-5.579621647484600544e-04
-6.601837929338216782e-03
1.940233341883867979e-04
1.017428375780582428e-02
5.426081479527056217e-04
-4.750759806483983994e-03
-5.146321491338312626e-04
-2.988560358062386513e-03
-7.357713766396045685e-04
-5.532614421099424362e-03
-2.584147499874234200e-03
-4.098873585462570190e-03
-2.791482722386717796e-03
3.321569878607988358e-03
6.568561773747205734e-03
4.638794343918561935e-03
-1.045177923515439034e-03
-1.967387739568948746e-03
-1.842728350311517715e-03
-2.255153842270374298e-03
8.487135171890258789e-03
-4.379169258754700422e-04
2.202111063525080681e-03
8.767739636823534966e-04
6.518115755170583725e-03
2.811016282066702843e-03
-3.822647035121917725e-03
4.804769065231084824e-03
8.436157368123531342e-03
1.566644757986068726e-03
8.765829261392354965e-04
-1.502612838521599770e-03
3.412661142647266388e-03
-8.386184344999492168e-04
5.809725727885961533e-03
-7.761858403682708740e-03
2.018592087551951408e-03
-7.971831597387790680e-03
-1.508308341726660728e-03
1.302879303693771362e-03
-7.638525567017495632e-04
-2.740242925938218832e-04
-1.207720779348164797e-04
4.043527878820896149e-03
-3.863099031150341034e-03
2.757411450147628784e-03
6.438820157200098038e-03
-6.896288832649588585e-04
-9.665001998655498028e-04
-3.628813428804278374e-04
6.401119288057088852e-03
7.375123444944620132e-03
2.641657367348670959e-03
3.485600696876645088e-03
2.289386233314871788e-03
7.477005128748714924e-04
8.569576777517795563e-03
7.945341058075428009e-03
-3.809990361332893372e-03
-2.587530761957168579e-03
1.212115748785436153e-03
2.880811691284179688e-03
7.092593237757682800e-03
1.429255935363471508e-03
5.255192983895540237e-03
-3.591387998312711716e-03
9.868373163044452667e-03
3.402807749807834625e-03
-5.079147522337734699e-04
-2.985660452395677567e-03
-1.860090880654752254e-03
-1.471036695875227451e-03
-1.441857311874628067e-03
-6.087404675781726837e-03
-6.985251675359904766e-04
-6.692443508654832840e-03
-3.327866783365607262e-03
5.695247673429548740e-04
1.818364486098289490e-03
8.433999610133469105e-04
-1.064787153154611588e-03
9.510052623227238655e-04
-1.014689099974930286e-03
1.094752829521894455e-02
4.933594260364770889e-03
-2.789537538774311543e-04
1.719559077173471451e-03
-3.067137440666556358e-03
-3.750162664800882339e-03
1.155632082372903824e-03
-1.021269199554808438e-04
-4.570510936900973320e-04
1.439566840417683125e-03
2.298483392223715782e-03
2.851059194654226303e-03
-1.918768510222434998e-03
-4.406789375934749842e-04
-5.296391434967517853e-03
-1.673672377364709973e-04
2.273621037602424622e-03
5.841131205670535564e-04
-9.373292559757828712e-04
-4.324408364482223988e-04
-1.505501917563378811e-03
3.093749750405550003e-03
3.773137694224715233e-03
-7.062144111841917038e-03
7.309219334274530411e-03
-2.000582404434680939e-03
1.265426166355609894e-03
-7.263960433192551136e-04
-6.107014487497508526e-04
5.161327309906482697e-03
2.541254216339439154e-04
3.991418052464723587e-03
-3.258042503148317337e-03
-4.489362472668290138e-04
-1.774218748323619366e-03
7.104828953742980957e-03
-8.823356591165065765e-03
-5.686132702976465225e-03
-5.902289558434858918e-05
5.388232879340648651e-03
-5.586682818830013275e-03
7.511157076805830002e-03
-7.404458010569214821e-04
2.636886434629559517e-03
-3.790415357798337936e-03
-6.801042705774307251e-03
7.182963192462921143e-03
9.268474765121936798e-03
-2.288000425323843956e-03
4.991604480892419815e-03
9.095527348108589649e-04
3.487264621071517467e-04
-1.215051626786589622e-03
1.126642338931560516e-03
-1.794203184545040131e-03
-1.343550509773194790e-03
-3.569395979866385460e-03
-9.637587936595082283e-04
-3.479577368125319481e-03
-2.763568656519055367e-03
2.878104336559772491e-03
1.996988430619239807e-03
-3.553129266947507858e-03
6.485589779913425446e-03
-5.170843214727938175e-04
-3.970913123339414597e-03
8.309654658660292625e-04
9.579592733643949032e-04
-2.028518822044134140e-03
-2.661535050719976425e-03
-4.296542610973119736e-03
-2.731439191848039627e-03
6.789471954107284546e-03
-7.888691034168004990e-04
-4.148791078478097916e-03
-3.265314735472202301e-03
1.241622958332300186e-03
8.172368630766868591e-03
-9.364310972159728408e-05
-3.746563801541924477e-03
-4.244810435920953751e-03
-3.089477075263857841e-03
-3.917267080396413803e-03
1.911015860969200730e-04
-5.334555637091398239e-03
3.337631002068519592e-03
6.304427050054073334e-03
1.659619854763150215e-03
-4.232519771903753281e-03
-7.819450460374355316e-03
3.795898228418081999e-04
-1.359400775982066989e-04
3.372710198163986206e-03
5.742707755416631699e-03
5.752269644290208817e-03
5.093180108815431595e-03
1.364887505769729614e-02
-1.453721313737332821e-03
-1.612412626855075359e-03
4.949677735567092896e-03
2.099422737956047058e-03
-3.074615669902414083e-04
4.339388106018304825e-03
-2.797333523631095886e-03
-8.202307508327066898e-04
-2.460282121319323778e-04
5.370103754103183746e-03
5.932406056672334671e-03
3.281530458480119705e-03
3.319503273814916611e-03
-3.186186775565147400e-03
-2.636593068018555641e-03
3.282830351963639259e-03
-1.653049723245203495e-03
9.819778613746166229e-03
-2.412912202998995781e-03
1.773106399923563004e-03
2.198710571974515915e-03
2.708857879042625427e-03
8.438104996457695961e-04
1.691534765996038914e-03
-1.325840712524950504e-03
-6.245734170079231262e-03
-1.056317822076380253e-03
4.305285110604017973e-04
-6.097130244597792625e-04
-7.544300518929958344e-03
1.119727967306971550e-03
-1.979475018742959946e-05
3.438678104430437088e-03
7.440555840730667114e-03
-8.384156972169876099e-03
-1.756067504175007343e-03
2.270416123792529106e-03
3.270207904279232025e-03
-2.150582615286111832e-03
6.665815017186105251e-04
6.060338113456964493e-03
2.156479422410484403e-05
-4.812825936824083328e-04
-4.861666820943355560e-03
4.358741454780101776e-03
-8.400946389883756638e-04
-1.268152031116187572e-03
1.740407082252204418e-03
8.413099683821201324e-03
1.476605050265789032e-02
-1.885364297777414322e-03
-3.605643520131707191e-03
1.660052570514380932e-03
1.418064255267381668e-02
-4.474395420402288437e-03
-1.448787661502137780e-04
8.923364803194999695e-04
3.206522669643163681e-03
-4.404641687870025635e-03
-6.600799970328807831e-03
-5.884698592126369476e-03
-2.471864921972155571e-03
7.836845470592379570e-04
-3.418043721467256546e-03
-5.293206311762332916e-03
-1.122158579528331757e-02
2.180511364713311195e-03
9.710684535093605518e-04
3.188445465639233589e-03
-3.129046410322189331e-03
1.416356302797794342e-03
2.584389003459364176e-04
5.380166694521903992e-03
-6.578063126653432846e-03
-4.176096525043249130e-03
1.110926619730889797e-03
-6.673883763141930103e-05
6.740356184309348464e-05
-4.894010722637176514e-03
-1.916161039844155312e-03
1.061662007123231888e-02
3.486321074888110161e-04
4.236081615090370178e-03
1.819243538193404675e-03
-2.301079686731100082e-03
5.308724008500576019e-03
-4.965882748365402222e-03
2.157130744308233261e-03
-2.927986497525125742e-04
-2.012425567954778671e-03
-2.408664440736174583e-03
-2.518597058951854706e-03
1.515467884019017220e-03
-1.448896015062928200e-03
-3.805507440119981766e-03
1.157807884737849236e-03
1.801109523512423038e-03
-3.436161205172538757e-03
2.449330873787403107e-03
1.532338792458176613e-03
6.875233375467360020e-04
5.076277884654700756e-04
-4.949378781020641327e-03
-1.506422297097742558e-03
-3.707404481247067451e-03
8.127208799123764038e-03
4.571063444018363953e-03
-2.861173124983906746e-03
8.343535475432872772e-03
9.630838176235556602e-04
-5.968951736576855183e-04
